{"learner":{"attributes":{},"feature_names":["is_5k","contains_parkrun","hour","hour_8","distance_km","name_length","pace_min_per_km","elevation_gain","day_of_week","day_5"],"feature_types":["int","int","int","i","float","int","float","float","int","i"],"gradient_booster":{"model":{"cats":{"enc":[],"feature_segments":[],"sorted_idx":[]},"gbtree_model_param":{"num_parallel_tree":"1","num_trees":"50"},"iteration_indptr":[0,1,2,3,4,5,6,7,8,9,10,11,12,13,14,15,16,17,18,19,20,21,22,23,24,25,26,27,28,29,30,31,32,33,34,35,36,37,38,39,40,41,42,43,44,45,46,47,48,49,50],"tree_info":[0,0,0,0,0,0,0,0,0,0,0,0,0,0,0,0,0,0,0,0,0,0,0,0,0,0,0,0,0,0,0,0,0,0,0,0,0,0,0,0,0,0,0,0,0,0,0,0,0,0],"trees":[{"base_weights":[6.1931387E-3,-9.708358E-1,2.9361933E-1,-1.4226787E-1,4.9371406E-1,2.3823185E0,-1.2368546E0,6.5114975E-2,2.5425288E-1,-3.014094E-2,-1.3184066E-1],"categories":[],"categories_nodes":[],"categories_segments":[],"categories_sizes":[],"default_left":[0,0,0,0,0,0,0,0,0,0,0],"id":0,"left_children":[1,3,-1,-1,5,7,9,-1,-1,-1,-1],"loss_changes":[2.783162E2,4.89532E1,0E0,0E0,6.1561184E1,8.176193E-1,3.667755E-1,0E0,0E0,0E0,0E0],"parents":[2147483647,0,0,1,1,4,4,5,5,6,6],"right_children":[2,4,-1,-1,6,8,10,-1,-1,-1,-1],"split_conditions":[1E0,1E0,2.9361933E-1,-1.4226787E-1,5.0655E0,4.2152333E0,6.1607E0,6.5114975E-2,2.5425288E-1,-3.014094E-2,-1.3184066E-1],"split_indices":[1,3,0,0,4,6,4,0,0,0,0],"split_type":[0,0,0,0,0,0,0,0,0,0,0],"sum_hessian":[9.522598E1,7.1914314E1,2.3311672E1,5.498036E1,1.693395E1,7.917172E0,9.016779E0,1.0996072E0,6.8175645E0,1.0996072E0,7.917172E0],"tree_param":{"num_deleted":"0","num_feature":"10","num_nodes":"11","size_leaf_vector":"1"}},{"base_weights":[-1.5256551E-1,-1.0215687E0,2.430319E-1,-1.3760906E-1,1.8158641E-1,2.1638508E-1,-1.2969638E-1],"categories":[],"categories_nodes":[],"categories_segments":[],"categories_sizes":[],"default_left":[0,0,0,0,0,0,0],"id":1,"left_children":[1,3,-1,-1,5,-1,-1],"loss_changes":[2.1101111E2,3.020205E1,0E0,0E0,5.2236717E1,0E0,0E0],"parents":[2147483647,0,0,1,1,4,4],"right_children":[2,4,-1,-1,6,-1,-1],"split_conditions":[1E0,1E0,2.430319E-1,-1.3760906E-1,5.0342E0,2.1638508E-1,-1.2969638E-1],"split_indices":[1,3,0,0,4,0,0],"split_type":[0,0,0,0,0,0,0],"sum_hessian":[9.190494E1,6.9220436E1,2.2684507E1,5.335508E1,1.5865355E1,6.580076E0,9.285278E0],"tree_param":{"num_deleted":"0","num_feature":"10","num_nodes":"7","size_leaf_vector":"1"}},{"base_weights":[-1.0612441E-2,-8.3971566E-1,2.1201913E-1,1.361339E0,-1.0470899E0,-3.299516E-2,1.8476996E-1,-4.9893942E-1,-1.311704E-1,1.6436915E-1,-1.2827626E-1],"categories":[],"categories_nodes":[],"categories_segments":[],"categories_sizes":[],"default_left":[0,0,0,0,0,0,0,0,0,0,0],"id":2,"left_children":[1,3,-1,5,7,-1,-1,9,-1,-1,-1],"loss_changes":[1.6260077E2,3.1664036E1,0E0,5.659442E0,8.209366E0,0E0,0E0,3.823241E1,0E0,0E0,0E0],"parents":[2147483647,0,0,1,1,3,3,4,4,7,7],"right_children":[2,4,-1,6,8,-1,-1,10,-1,-1,-1],"split_conditions":[1E0,9E0,2.1201913E-1,4.133841E0,5.0443E0,-3.299516E-2,1.8476996E-1,9E0,-1.311704E-1,1.6436915E-1,-1.2827626E-1],"split_indices":[1,5,0,6,4,0,0,2,0,0,0],"split_type":[0,0,0,0,0,0,0,0,0,0,0],"sum_hessian":[9.003096E1,6.524847E1,2.478249E1,5.138989E0,6.0109478E1,1.2195758E0,3.919413E0,2.050947E1,3.960001E1,5.199442E0,1.5310027E1],"tree_param":{"num_deleted":"0","num_feature":"10","num_nodes":"11","size_leaf_vector":"1"}},{"base_weights":[1.86344E-2,-8.035391E-1,1.9041896E-1,-1.254456E-1,4.6342832E-1,1.7510184E0,-1.1705192E-1,1.8628483E-1,4.8392855E-2],"categories":[],"categories_nodes":[],"categories_segments":[],"categories_sizes":[],"default_left":[0,0,0,0,0,0,0,0,0],"id":3,"left_children":[1,3,-1,-1,5,7,-1,-1,-1],"loss_changes":[1.4167339E2,3.6946922E1,0E0,0E0,3.8737637E1,5.372658E-1,0E0,0E0,0E0],"parents":[2147483647,0,0,1,1,4,4,5,5],"right_children":[2,4,-1,-1,6,8,-1,-1,-1],"split_conditions":[1E0,1E0,1.9041896E-1,-1.254456E-1,5.0655E0,5.0305E0,-1.1705192E-1,1.8628483E-1,4.8392855E-2],"split_indices":[1,3,0,0,4,4,0,0,0],"split_type":[0,0,0,0,0,0,0,0,0],"sum_hessian":[8.9400246E1,6.2654396E1,2.6745846E1,4.621591E1,1.6438486E1,9.153588E0,7.2848973E0,7.9791894E0,1.1743985E0],"tree_param":{"num_deleted":"0","num_feature":"10","num_nodes":"9","size_leaf_vector":"1"}},{"base_weights":[-5.6387596E-3,-1.1982705E-1,1.4579422E0,1.6855003E0,-6.7476195E-1,3.5367142E-2,1.7183506E0,-9.282424E-2,1.1357508E-2,1.7777823E-1,9.214974E-2],"categories":[],"categories_nodes":[],"categories_segments":[],"categories_sizes":[],"default_left":[0,0,0,0,0,0,0,0,0,0,0],"id":4,"left_children":[1,-1,3,5,7,-1,9,-1,-1,-1,-1],"loss_changes":[1.5688982E2,0E0,2.0723793E1,1.0002747E0,1.0256646E0,0E0,4.8171997E-2,0E0,0E0,0E0,0E0],"parents":[2147483647,0,0,2,2,3,3,4,4,6,6],"right_children":[2,-1,4,6,8,-1,10,-1,-1,-1,-1],"split_conditions":[1E0,-1.1982705E-1,9E0,3.6185493E0,4.0411487E0,3.5367142E-2,5.0473E0,-9.282424E-2,1.1357508E-2,1.7777823E-1,9.214974E-2],"split_indices":[0,0,2,6,6,0,4,0,0,0,0],"split_type":[0,0,0,0,0,0,0,0,0,0,0],"sum_hessian":[8.788091E1,4.8522526E1,3.935839E1,3.5753235E1,3.6051555E0,1.1438802E0,3.4609352E1,2.5937095E0,1.011446E0,3.1061682E1,3.5476716E0],"tree_param":{"num_deleted":"0","num_feature":"10","num_nodes":"11","size_leaf_vector":"1"}},{"base_weights":[-4.3700222E-2,-8.13755E-1,1.6335988E-1,-1.1840206E-1,2.7403066E-1,1.2470051E0,-9.3333787E-1,-2.8868651E-2,1.4836642E-1,-1.0610522E-1,-3.721313E-2],"categories":[],"categories_nodes":[],"categories_segments":[],"categories_sizes":[],"default_left":[0,0,0,0,0,0,0,0,0,0,0],"id":5,"left_children":[1,3,-1,-1,5,7,9,-1,-1,-1,-1],"loss_changes":[1.1116088E2,2.4066124E1,0E0,0E0,1.970259E1,3.7598886E0,1.5089273E-1,0E0,0E0,0E0,0E0],"parents":[2147483647,0,0,1,1,4,4,5,5,6,6],"right_children":[2,4,-1,-1,6,8,10,-1,-1,-1,-1],"split_conditions":[1E0,1E0,1.6335988E-1,-1.1840206E-1,3.84E1,1E0,1E0,-2.8868651E-2,1.4836642E-1,-1.0610522E-1,-3.721313E-2],"split_indices":[1,3,0,0,7,9,9,0,0,0,0],"split_type":[0,0,0,0,0,0,0,0,0,0,0],"sum_hessian":[8.403445E1,5.7946033E1,2.6088417E1,4.3164898E1,1.4781137E1,8.1669E0,6.6142373E0,1.0611572E0,7.1057425E0,4.6625204E0,1.9517167E0],"tree_param":{"num_deleted":"0","num_feature":"10","num_nodes":"11","size_leaf_vector":"1"}},{"base_weights":[8.907018E-3,-1.1110086E0,1.2174836E0,-1.1991227E-1,9.770837E-2,1.4604595E0,-4.9714133E-1,-4.4909515E-3,1.5116297E-1,-8.887266E-2,1.5523723E-2],"categories":[],"categories_nodes":[],"categories_segments":[],"categories_sizes":[],"default_left":[0,0,0,0,0,0,0,0,0,0,0],"id":6,"left_children":[1,3,5,-1,-1,7,9,-1,-1,-1,-1],"loss_changes":[1.08077255E2,8.797916E0,1.6724495E1,0E0,0E0,2.6783524E0,1.5461663E0,0E0,0E0,0E0,0E0],"parents":[2147483647,0,0,1,1,2,2,5,5,6,6],"right_children":[2,4,6,-1,-1,8,10,-1,-1,-1,-1],"split_conditions":[1E0,1E0,9E0,-1.1991227E-1,9.770837E-2,3.582266E0,3.6905594E0,-4.4909515E-3,1.5116297E-1,-8.887266E-2,1.5523723E-2],"split_indices":[0,1,2,0,0,6,6,0,0,0,0],"split_type":[0,0,0,0,0,0,0,0,0,0,0],"sum_hessian":[7.7850624E1,4.0449356E1,3.7401268E1,3.9220066E1,1.2292892E0,3.288889E1,4.51238E0,1.0852246E0,3.1803663E1,2.5934157E0,1.9189646E0],"tree_param":{"num_deleted":"0","num_feature":"10","num_nodes":"11","size_leaf_vector":"1"}},{"base_weights":[-1.0853411E-2,-1.0972712E0,1.1184047E0,-1.1498944E-1,1.683456E-2,-3.7136477E-1,1.2814881E0,-7.7385925E-2,1.472599E-2,-4.7435905E-3,1.3452897E0,1.4247917E-1,5.732271E-2],"categories":[],"categories_nodes":[],"categories_segments":[],"categories_sizes":[],"default_left":[0,0,0,0,0,0,0,0,0,0,0,0,0],"id":7,"left_children":[1,3,5,-1,-1,7,9,-1,-1,-1,11,-1,-1],"loss_changes":[9.320479E1,2.7720222E0,9.527451E0,0E0,0E0,1.0431321E0,2.9300194E0,0E0,0E0,0E0,1.165245E0,0E0,0E0],"parents":[2147483647,0,0,1,1,2,2,5,5,6,6,10,10],"right_children":[2,4,6,-1,-1,8,10,-1,-1,-1,12,-1,-1],"split_conditions":[1E0,5.4E1,3.6905594E0,-1.1498944E-1,1.683456E-2,3.5644636E0,4.9122E0,-7.7385925E-2,1.472599E-2,-4.7435905E-3,5.0473E0,1.4247917E-1,5.732271E-2],"split_indices":[0,5,6,0,0,6,4,0,0,0,4,0,0],"split_type":[0,0,0,0,0,0,0,0,0,0,0,0,0],"sum_hessian":[7.3970764E1,3.7714935E1,3.6255833E1,3.629717E1,1.4177662E0,3.4512684E0,3.280456E1,1.6661018E0,1.7851665E0,1.5145495E0,3.1290012E1,2.7602278E1,3.687735E0],"tree_param":{"num_deleted":"0","num_feature":"10","num_nodes":"13","size_leaf_vector":"1"}},{"base_weights":[-2.7823329E-2,-1.0574646E0,1.067269E0,-1.1497865E-1,9.360103E-2,1.2561154E0,-7.434877E-2,1.3688502E0,4.2436534E-1,2.6314339E-2,1.4027241E-1,-3.6080927E-2,1.0407477E-1],"categories":[],"categories_nodes":[],"categories_segments":[],"categories_sizes":[],"default_left":[0,0,0,0,0,0,0,0,0,0,0,0,0],"id":8,"left_children":[1,3,5,-1,-1,7,-1,9,11,-1,-1,-1,-1],"loss_changes":[8.213053E1,7.982937E0,1.3008545E1,0E0,0E0,2.4522514E0,0E0,6.8099976E-1,2.9455519E0,0E0,0E0,0E0,0E0],"parents":[2147483647,0,0,1,1,2,2,5,5,7,7,8,8],"right_children":[2,4,6,-1,-1,8,-1,10,12,-1,-1,-1,-1],"split_conditions":[1E0,1E0,1E1,-1.1497865E-1,9.360103E-2,5.0473E0,-7.434877E-2,4.9122E0,1E0,2.6314339E-2,1.4027241E-1,-3.6080927E-2,1.0407477E-1],"split_indices":[0,1,2,0,0,4,0,4,1,0,0,0,0],"split_type":[0,0,0,0,0,0,0,0,0,0,0,0,0],"sum_hessian":[7.083874E1,3.652815E1,3.431059E1,3.5315826E1,1.2123215E0,3.1347603E1,2.962984E0,2.7037249E1,4.3103557E0,1.0643119E0,2.5972937E1,2.0779748E0,2.2323809E0],"tree_param":{"num_deleted":"0","num_feature":"10","num_nodes":"13","size_leaf_vector":"1"}},{"base_weights":[-1.9850345E-2,-1.0267779E0,9.795394E-1,-1.1246099E-1,8.939799E-2,1.2011297E0,-4.7240898E-1,8.359981E-1,1.321548E-1,-9.0195455E-2,-7.792077E-2,1.1061957E-1,-1.5545077E-2,-3.8955167E-2,2.7539501E-2],"categories":[],"categories_nodes":[],"categories_segments":[],"categories_sizes":[],"default_left":[0,0,0,0,0,0,0,0,0,0,0,0,0,0,0],"id":9,"left_children":[1,3,5,-1,-1,7,9,11,-1,13,-1,-1,-1,-1,-1],"loss_changes":[6.8104355E1,7.338337E0,1.14987335E1,0E0,0E0,2.0366669E-1,5.414077E-1,2.878213E0,0E0,4.8525184E-1,0E0,0E0,0E0,0E0,0E0],"parents":[2147483647,0,0,1,1,2,2,5,5,6,6,7,7,9,9],"right_children":[2,4,6,-1,-1,8,10,12,-1,14,-1,-1,-1,-1,-1],"split_conditions":[1E0,1E0,9E0,-1.1246099E-1,8.939799E-2,1E0,5E0,3.84E1,1.321548E-1,2.6E1,-7.792077E-2,1.1061957E-1,-1.5545077E-2,-3.8955167E-2,2.7539501E-2],"split_indices":[0,1,2,0,0,1,8,7,0,5,0,0,0,0,0],"split_type":[0,0,0,0,0,0,0,0,0,0,0,0,0,0,0],"sum_hessian":[6.567764E1,3.2701794E1,3.297585E1,3.151129E1,1.1905032E0,2.8759449E1,4.2163997E0,9.102217E0,1.9657232E1,2.4536288E0,1.7627709E0,7.0619116E0,2.0403051E0,1.3129805E0,1.1406482E0],"tree_param":{"num_deleted":"0","num_feature":"10","num_nodes":"15","size_leaf_vector":"1"}},{"base_weights":[3.5308994E-2,-1.0082364E0,1.0077994E0,-1.1077745E-1,8.5566215E-2,1.2050817E0,-4.1776207E-1,1.2932837E-1,5.957821E-1,1.1714877E-3,-6.299703E-2,-2.5239987E-2,1.02461256E-1],"categories":[],"categories_nodes":[],"categories_segments":[],"categories_sizes":[],"default_left":[0,0,0,0,0,0,0,0,0,0,0,0,0],"id":10,"left_children":[1,3,5,-1,-1,7,9,-1,11,-1,-1,-1,-1],"loss_changes":[6.641611E1,6.8080215E0,1.0025501E1,0E0,0E0,8.416786E-1,4.501773E-1,0E0,2.312825E0,0E0,0E0,0E0,0E0],"parents":[2147483647,0,0,1,1,2,2,5,5,6,6,8,8],"right_children":[2,4,6,-1,-1,8,10,-1,12,-1,-1,-1,-1],"split_conditions":[1E0,1E0,9E0,-1.1077745E-1,8.5566215E-2,5.0331E0,1.4E1,1.2932837E-1,1E0,1.1714877E-3,-6.299703E-2,-2.5239987E-2,1.02461256E-1],"split_indices":[0,1,2,0,0,4,2,0,1,0,0,0,0],"split_type":[0,0,0,0,0,0,0,0,0,0,0,0,0],"sum_hessian":[6.3443798E1,3.0586132E1,3.2857666E1,2.9420645E1,1.1654884E0,2.8999157E1,3.858508E0,2.4351469E1,4.6476893E0,1.588474E0,2.2700338E0,1.6988881E0,2.9488015E0],"tree_param":{"num_deleted":"0","num_feature":"10","num_nodes":"13","size_leaf_vector":"1"}},{"base_weights":[-1.0054228E-2,-1.0000229E0,9.21318E-1,-1.0593647E-1,-4.058395E-1,1.126483E0,-5.9159493E-1,2.935423E-2,-7.549169E-2,-1.3059552E-2,1.1833358E0,-1.0025386E-2,-7.766222E-2,1.2403041E-1,5.4788023E-2],"categories":[],"categories_nodes":[],"categories_segments":[],"categories_sizes":[],"default_left":[0,0,0,0,0,0,0,0,0,0,0,0,0,0,0],"id":11,"left_children":[1,3,5,-1,7,9,11,-1,-1,-1,13,-1,-1,-1,-1],"loss_changes":[5.2070625E1,5.35162E-1,9.700129E0,0E0,1.2241178E0,2.0107613E0,2.9770505E-1,0E0,0E0,0E0,2.2360992E-1,0E0,0E0,0E0,0E0],"parents":[2147483647,0,0,1,1,2,2,4,4,5,5,6,6,10,10],"right_children":[2,4,6,-1,8,10,12,-1,-1,-1,14,-1,-1,-1,-1],"split_conditions":[1E0,5.742455E0,9E0,-1.0593647E-1,1.41963E1,3.582266E0,4.9478E0,2.935423E-2,-7.549169E-2,-1.3059552E-2,5.0473E0,-1.0025386E-2,-7.766222E-2,1.2403041E-1,5.4788023E-2],"split_indices":[0,6,2,0,4,6,4,0,0,0,4,0,0,0,0],"split_type":[0,0,0,0,0,0,0,0,0,0,0,0,0,0,0],"sum_hessian":[5.447468E1,2.6370934E1,2.8103746E1,2.3264584E1,3.1063507E0,2.4972647E1,3.1311E0,1.0872065E0,2.019144E0,1.0244229E0,2.3948223E1,1.2783272E0,1.8527727E0,2.1104387E1,2.8438365E0],"tree_param":{"num_deleted":"0","num_feature":"10","num_nodes":"15","size_leaf_vector":"1"}},{"base_weights":[-5.483793E-3,-9.8567677E-1,9.3860716E-1,-1.0499547E-1,2.849308E-2,1.1306618E0,-4.274487E-1,1.2222017E-1,5.4108226E-1,-6.681593E-2,-7.776258E-3,-1.920469E-2,9.355412E-2],"categories":[],"categories_nodes":[],"categories_segments":[],"categories_sizes":[],"default_left":[0,0,0,0,0,0,0,0,0,0,0,0,0],"id":12,"left_children":[1,3,5,-1,-1,7,9,-1,11,-1,-1,-1,-1],"loss_changes":[5.0736717E1,2.495861E0,7.8111877E0,0E0,0E0,6.751194E-1,2.9891503E-1,0E0,1.6610075E0,0E0,0E0,0E0,0E0],"parents":[2147483647,0,0,1,1,2,2,5,5,6,6,8,8],"right_children":[2,4,6,-1,-1,8,10,-1,12,-1,-1,-1,-1],"split_conditions":[1E0,5.2E1,9E0,-1.0499547E-1,2.849308E-2,5.0342E0,3.1E1,1.2222017E-1,1E0,-6.681593E-2,-7.776258E-3,-1.920469E-2,9.355412E-2],"split_indices":[0,5,2,0,0,4,5,0,1,0,0,0,0],"split_type":[0,0,0,0,0,0,0,0,0,0,0,0,0],"sum_hessian":[5.2827553E1,2.5896608E1,2.6930944E1,2.4814924E1,1.0816847E0,2.3762478E1,3.1684656E0,1.964009E1,4.122387E0,1.3372285E0,1.8312371E0,1.6216244E0,2.5007625E0],"tree_param":{"num_deleted":"0","num_feature":"10","num_nodes":"13","size_leaf_vector":"1"}},{"base_weights":[-3.1072397E-2,-9.6115017E-1,8.079706E-1,-1.05751954E-1,3.9578848E-2,1.0145569E0,-3.625625E-1,1.134517E0,1.2197896E-1,5.5466857E-2,-7.323689E-2,3.3752155E-2,1.163978E-1,-2.903955E-2,5.3328473E-2,-2.4356361E-2,3.1958748E-2],"categories":[],"categories_nodes":[],"categories_segments":[],"categories_sizes":[],"default_left":[0,0,0,0,0,0,0,0,0,0,0,0,0,0,0,0,0],"id":13,"left_children":[1,3,5,-1,-1,7,9,11,13,15,-1,-1,-1,-1,-1,-1,-1],"loss_changes":[3.9551846E1,3.559885E0,6.8160343E0,0E0,0E0,2.316677E0,7.729044E-1,7.889557E-2,8.056552E-1,3.268713E-1,0E0,0E0,0E0,0E0,0E0,0E0,0E0],"parents":[2147483647,0,0,1,1,2,2,5,5,6,6,7,7,8,8,9,9],"right_children":[2,4,6,-1,-1,8,10,12,14,16,-1,-1,-1,-1,-1,-1,-1],"split_conditions":[1E0,5.1E1,9E0,-1.05751954E-1,3.9578848E-2,5.0473E0,5E0,4.9225E0,4.55E1,2.6E1,-7.323689E-2,3.3752155E-2,1.163978E-1,-2.903955E-2,5.3328473E-2,-2.4356361E-2,3.1958748E-2],"split_indices":[0,5,2,0,0,4,8,4,7,5,0,0,0,0,0,0,0],"split_type":[0,0,0,0,0,0,0,0,0,0,0,0,0,0,0,0,0],"sum_hessian":[4.8687977E1,2.3022282E1,2.5665693E1,2.1701693E1,1.3205903E0,2.1928759E1,3.7369344E0,1.9091816E1,2.836944E0,2.1530905E0,1.5838438E0,1.1246164E0,1.79672E1,1.5634243E0,1.2735196E0,1.0463135E0,1.106777E0],"tree_param":{"num_deleted":"0","num_feature":"10","num_nodes":"17","size_leaf_vector":"1"}},{"base_weights":[2.3334961E-2,-9.3360794E-1,8.144688E-1,-1.0091354E0,1.9053133E-2,1.0076401E0,-3.3004218E-1,-1.0394954E-1,-2.3123195E-2,1.1662369E-1,2.2403185E-1,-6.3303135E-2,2.8324783E-2,-4.5088034E-2,8.466428E-2],"categories":[],"categories_nodes":[],"categories_segments":[],"categories_sizes":[],"default_left":[0,0,0,0,0,0,0,0,0,0,0,0,0,0,0],"id":14,"left_children":[1,3,5,7,-1,9,11,-1,-1,-1,13,-1,-1,-1,-1],"loss_changes":[3.6362072E1,2.0387917E0,6.142088E0,2.4468422E-1,0E0,2.5634613E0,1.024394E0,0E0,0E0,0E0,2.5095298E0,0E0,0E0,0E0,0E0],"parents":[2147483647,0,0,1,1,2,2,3,3,5,5,6,6,10,10],"right_children":[2,4,6,8,-1,10,12,-1,-1,-1,14,-1,-1,-1,-1],"split_conditions":[1E0,5.4E1,9E0,6.5196853E0,1.9053133E-2,5.0342E0,4.0411487E0,-1.0394954E-1,-2.3123195E-2,1.1662369E-1,1E0,-6.3303135E-2,2.8324783E-2,-4.5088034E-2,8.466428E-2],"split_indices":[0,5,2,6,0,4,6,0,0,0,1,0,0,0,0],"split_type":[0,0,0,0,0,0,0,0,0,0,0,0,0,0,0],"sum_hessian":[4.602561E1,2.0748486E1,2.5277126E1,1.9538086E1,1.2103992E0,2.172924E1,3.547887E0,1.848055E1,1.0575359E0,1.7665565E1,4.063675E0,2.3531501E0,1.194737E0,2.08229E0,1.9813852E0],"tree_param":{"num_deleted":"0","num_feature":"10","num_nodes":"15","size_leaf_vector":"1"}},{"base_weights":[-7.058209E-2,-9.3445385E-1,7.403466E-1,-1.03387885E-1,2.9491743E-2,9.6571463E-1,-4.530324E-1,1.0917072E0,4.1278237E-1,2.2826155E-3,-7.4061416E-2,3.3944182E-2,1.1311529E-1,-1.8907418E-2,8.6756736E-2],"categories":[],"categories_nodes":[],"categories_segments":[],"categories_sizes":[],"default_left":[0,0,0,0,0,0,0,0,0,0,0,0,0,0,0],"id":15,"left_children":[1,3,5,-1,-1,7,9,11,13,-1,-1,-1,-1,-1,-1],"loss_changes":[3.2020027E1,3.0056267E0,6.791402E0,0E0,0E0,9.560013E-1,6.236212E-1,8.5962296E-2,1.629792E0,0E0,0E0,0E0,0E0,0E0,0E0],"parents":[2147483647,0,0,1,1,2,2,5,5,6,6,7,7,8,8],"right_children":[2,4,6,-1,-1,8,10,12,14,-1,-1,-1,-1,-1,-1],"split_conditions":[1E0,5.4E1,9E0,-1.03387885E-1,2.9491743E-2,5.0342E0,1.4E1,4.9225E0,1E0,2.2826155E-3,-7.4061416E-2,3.3944182E-2,1.1311529E-1,-1.8907418E-2,8.6756736E-2],"split_indices":[0,5,2,0,0,4,2,4,1,0,0,0,0,0,0],"split_type":[0,0,0,0,0,0,0,0,0,0,0,0,0,0,0],"sum_hessian":[4.3720192E1,2.109531E1,2.2624884E1,1.9664007E1,1.4313021E0,1.9191387E1,3.433495E0,1.4836345E1,4.355043E0,1.6401625E0,1.7933327E0,1.2177638E0,1.3618581E1,2.1259046E0,2.2291386E0],"tree_param":{"num_deleted":"0","num_feature":"10","num_nodes":"15","size_leaf_vector":"1"}},{"base_weights":[-2.2443056E-3,-5.736445E-1,1.1236475E-1,6.070758E-1,-7.338053E-1,5.1505934E-3,8.165737E-2,-3.3292082E-1,-9.719156E-2,-9.9447764E-2,6.3212335E-2],"categories":[],"categories_nodes":[],"categories_segments":[],"categories_sizes":[],"default_left":[0,0,0,0,0,0,0,0,0,0,0],"id":16,"left_children":[1,3,-1,5,7,-1,-1,9,-1,-1,-1],"loss_changes":[2.6538921E1,5.619734E0,0E0,4.0202713E-1,2.019493E0,0E0,0E0,7.4392776E0,0E0,0E0,0E0],"parents":[2147483647,0,0,1,1,3,3,4,4,7,7],"right_children":[2,4,-1,6,8,-1,-1,10,-1,-1,-1],"split_conditions":[1E0,9E0,1.1236475E-1,4.249461E0,5.0443E0,5.1505934E-3,8.165737E-2,4.159535E0,-9.719156E-2,-9.9447764E-2,6.3212335E-2],"split_indices":[1,5,0,6,4,0,0,6,0,0,0],"split_type":[0,0,0,0,0,0,0,0,0,0,0],"sum_hessian":[3.9250187E1,2.6361822E1,1.2888365E1,2.8154724E0,2.3546349E1,1.11211E0,1.7033625E0,9.667778E0,1.38785715E1,5.7176895E0,3.9500883E0],"tree_param":{"num_deleted":"0","num_feature":"10","num_nodes":"11","size_leaf_vector":"1"}},{"base_weights":[-7.3368237E-3,-9.4137836E-1,7.548659E-1,-9.738256E-2,-2.4753474E-2,2.0148496E-1,1.0978067E-1,-6.452475E-1,7.931365E-1,-8.264728E-2,-1.26622915E-2,9.442258E-2,9.737822E-3],"categories":[],"categories_nodes":[],"categories_segments":[],"categories_sizes":[],"default_left":[0,0,0,0,0,0,0,0,0,0,0,0,0],"id":17,"left_children":[1,3,5,-1,-1,7,-1,9,11,-1,-1,-1,-1],"loss_changes":[2.7689209E1,1.5231895E-1,3.8442068E0,0E0,0E0,5.2314334E0,0E0,3.113935E-1,5.3820086E-1,0E0,0E0,0E0,0E0],"parents":[2147483647,0,0,1,1,2,2,5,5,7,7,8,8],"right_children":[2,4,6,-1,-1,8,-1,10,12,-1,-1,-1,-1],"split_conditions":[1E0,6.446268E0,1E0,-9.738256E-2,-2.4753474E-2,1E0,1.0978067E-1,4.159535E0,5.0342E0,-8.264728E-2,-1.26622915E-2,9.442258E-2,9.737822E-3],"split_indices":[0,6,1,0,0,3,0,6,4,0,0,0,0],"split_type":[0,0,0,0,0,0,0,0,0,0,0,0,0],"sum_hessian":[3.6895058E1,1.6473063E1,2.0421995E1,1.535163E1,1.121433E0,8.421041E0,1.2000956E1,3.4265714E0,4.994469E0,2.0993876E0,1.3271837E0,3.809984E0,1.1844852E0],"tree_param":{"num_deleted":"0","num_feature":"10","num_nodes":"13","size_leaf_vector":"1"}},{"base_weights":[-1.688674E-2,-6.308929E-1,1.107161E-1,-1.00158684E-1,1.0476336E-1,-8.0996275E-2,4.7675362E-1,-2.7435845E-2,7.356308E-2],"categories":[],"categories_nodes":[],"categories_segments":[],"categories_sizes":[],"default_left":[0,0,0,0,0,0,0,0,0],"id":18,"left_children":[1,3,-1,-1,5,-1,7,-1,-1],"loss_changes":[2.632872E1,6.828125E0,0E0,0E0,3.5050063E0,0E0,1.591233E0,0E0,0E0],"parents":[2147483647,0,0,1,1,4,4,6,6],"right_children":[2,4,-1,-1,6,-1,8,-1,-1],"split_conditions":[1E0,1E0,1.107161E-1,-1.00158684E-1,4.012029E0,-8.0996275E-2,1E0,-2.7435845E-2,7.356308E-2],"split_indices":[1,0,0,0,6,0,3,0,0],"split_type":[0,0,0,0,0,0,0,0,0],"sum_hessian":[3.613598E1,2.3653881E1,1.2482099E1,1.5488039E1,8.165841E0,2.0203683E0,6.145473E0,1.5598593E0,4.5856137E0],"tree_param":{"num_deleted":"0","num_feature":"10","num_nodes":"9","size_leaf_vector":"1"}},{"base_weights":[1.2855213E-2,-5.839468E-1,1.0801859E-1,-9.73924E-2,2.204689E-1,-7.34073E-2,6.9745773E-1,8.991049E-2,7.066238E-3],"categories":[],"categories_nodes":[],"categories_segments":[],"categories_sizes":[],"default_left":[0,0,0,0,0,0,0,0,0],"id":19,"left_children":[1,3,-1,-1,5,-1,7,-1,-1],"loss_changes":[2.2215153E1,7.236095E0,0E0,0E0,4.210591E0,0E0,6.8589544E-1,0E0,0E0],"parents":[2147483647,0,0,1,1,4,4,6,6],"right_children":[2,4,-1,-1,6,-1,8,-1,-1],"split_conditions":[1E0,1E0,1.0801859E-1,-9.73924E-2,1E0,-7.34073E-2,5.0342E0,8.991049E-2,7.066238E-3],"split_indices":[1,3,0,0,0,0,4,0,0],"split_type":[0,0,0,0,0,0,0,0,0],"sum_hessian":[3.288522E1,2.1382181E1,1.1503037E1,1.4258838E1,7.123344E0,2.1939254E0,4.9294186E0,3.400872E0,1.5285465E0],"tree_param":{"num_deleted":"0","num_feature":"10","num_nodes":"9","size_leaf_vector":"1"}},{"base_weights":[-8.681943E-3,-6.005531E-1,1.0608484E-1,-9.771054E-2,4.161278E-2,5.470945E-1,-5.5186075E-1,6.9655485E-2,3.812696E-3,-1.1162593E-2,-8.143934E-2],"categories":[],"categories_nodes":[],"categories_segments":[],"categories_sizes":[],"default_left":[0,0,0,0,0,0,0,0,0,0,0],"id":20,"left_children":[1,3,-1,-1,5,7,9,-1,-1,-1,-1],"loss_changes":[2.0989267E1,5.1998005E0,0E0,0E0,2.9554827E0,3.750217E-1,4.368658E-1,0E0,0E0,0E0,0E0],"parents":[2147483647,0,0,1,1,4,4,5,5,6,6],"right_children":[2,4,-1,-1,6,8,10,-1,-1,-1,-1],"split_conditions":[1E0,1E0,1.0608484E-1,-9.771054E-2,1.8E1,5.0342E0,2.7E1,6.9655485E-2,3.812696E-3,-1.1162593E-2,-8.143934E-2],"split_indices":[1,0,0,0,5,4,7,0,0,0,0],"split_type":[0,0,0,0,0,0,0,0,0,0,0],"sum_hessian":[3.1150707E1,2.0335604E1,1.0815104E1,1.24901E1,7.845504E0,4.2790437E0,3.56646E0,3.0228174E0,1.2562265E0,1.8647288E0,1.7017312E0],"tree_param":{"num_deleted":"0","num_feature":"10","num_nodes":"11","size_leaf_vector":"1"}},{"base_weights":[3.1351335E-2,-8.2962453E-1,6.9201493E-1,-9.22604E-2,-6.9801025E-3,-4.4104144E-2,8.3590496E-1,-8.712808E-3,9.07486E-1,1.0220375E-1,1.936017E-2],"categories":[],"categories_nodes":[],"categories_segments":[],"categories_sizes":[],"default_left":[0,0,0,0,0,0,0,0,0,0,0],"id":21,"left_children":[1,3,5,-1,-1,-1,7,-1,9,-1,-1],"loss_changes":[1.7782885E1,8.9572716E-1,3.2484303E0,0E0,0E0,0E0,1.1374321E0,0E0,1.024951E0,0E0,0E0],"parents":[2147483647,0,0,1,1,2,2,6,6,8,8],"right_children":[2,4,6,-1,-1,-1,8,-1,10,-1,-1],"split_conditions":[1E0,5.742455E0,3.6768007E0,-9.22604E-2,-6.9801025E-3,-4.4104144E-2,4.9122E0,-8.712808E-3,5.0473E0,1.0220375E-1,1.936017E-2],"split_indices":[0,6,6,0,0,0,4,0,4,0,0],"split_type":[0,0,0,0,0,0,0,0,0,0,0],"sum_hessian":[2.9253704E1,1.2590299E1,1.6663404E1,1.1026727E1,1.5635724E0,1.6449757E0,1.5018429E1,1.0652252E0,1.3953203E1,1.1651863E1,2.3013406E0],"tree_param":{"num_deleted":"0","num_feature":"10","num_nodes":"11","size_leaf_vector":"1"}},{"base_weights":[2.2461293E-2,-5.279896E-1,1.0339274E-1,-9.5277466E-2,8.465659E-2,-7.538779E-2,4.0788743E-1,6.5357886E-2,-2.0990303E-2],"categories":[],"categories_nodes":[],"categories_segments":[],"categories_sizes":[],"default_left":[0,0,0,0,0,0,0,0,0],"id":22,"left_children":[1,3,-1,-1,5,-1,7,-1,-1],"loss_changes":[1.622903E1,5.0001025E0,0E0,0E0,2.6543002E0,0E0,1.1842688E0,0E0,0E0],"parents":[2147483647,0,0,1,1,4,4,6,6],"right_children":[2,4,-1,-1,6,-1,8,-1,-1],"split_conditions":[1E0,1E0,1.0339274E-1,-9.5277466E-2,4.012029E0,-7.538779E-2,5.0443E0,6.5357886E-2,-2.0990303E-2],"split_indices":[1,0,0,0,6,0,4,0,0],"split_type":[0,0,0,0,0,0,0,0,0],"sum_hessian":[2.7168438E1,1.7903276E1,9.265162E0,1.0244771E1,7.658505E0,1.7600956E0,5.8984094E0,4.1786547E0,1.7197548E0],"tree_param":{"num_deleted":"0","num_feature":"10","num_nodes":"9","size_leaf_vector":"1"}},{"base_weights":[-1.1393447E-2,-5.952847E-1,1.0185038E-1,-9.430458E-2,1.7628771E-1,7.682024E-2,-4.9516812E-1,-7.43091E-2,7.0369192E-3],"categories":[],"categories_nodes":[],"categories_segments":[],"categories_sizes":[],"default_left":[0,0,0,0,0,0,0,0,0],"id":23,"left_children":[1,3,-1,-1,5,-1,7,-1,-1],"loss_changes":[1.6673595E1,4.9109163E0,0E0,0E0,2.8987043E0,0E0,5.537826E-1,0E0,0E0],"parents":[2147483647,0,0,1,1,4,4,6,6],"right_children":[2,4,-1,-1,6,-1,8,-1,-1],"split_conditions":[1E0,1E0,1.0185038E-1,-9.430458E-2,5.0342E0,7.682024E-2,4.8659253E0,-7.43091E-2,7.0369192E-3],"split_indices":[1,3,0,0,4,0,6,0,0],"split_type":[0,0,0,0,0,0,0,0,0],"sum_hessian":[2.57188E1,1.668269E1,9.03611E0,1.1346423E1,5.3362675E0,2.75954E0,2.5767276E0,1.5731338E0,1.0035937E0],"tree_param":{"num_deleted":"0","num_feature":"10","num_nodes":"9","size_leaf_vector":"1"}},{"base_weights":[-2.11512E-2,-5.085648E-1,9.8978095E-2,-9.243906E-2,2.0799632E-1,7.832836E-2,-3.9267775E-1,-6.1760504E-2,-5.5535426E-3],"categories":[],"categories_nodes":[],"categories_segments":[],"categories_sizes":[],"default_left":[0,0,0,0,0,0,0,0,0],"id":24,"left_children":[1,3,-1,-1,5,-1,7,-1,-1],"loss_changes":[1.2990258E1,5.483691E0,0E0,0E0,2.8431158E0,0E0,2.88415E-1,0E0,0E0],"parents":[2147483647,0,0,1,1,4,4,6,6],"right_children":[2,4,-1,-1,6,-1,8,-1,-1],"split_conditions":[1E0,1E0,9.8978095E-2,-9.243906E-2,5.0342E0,7.832836E-2,1E0,-6.1760504E-2,-5.5535426E-3],"split_indices":[1,3,0,0,4,0,0,0,0],"split_type":[0,0,0,0,0,0,0,0,0],"sum_hessian":[2.4341637E1,1.6758556E1,7.583081E0,1.0421084E1,6.337472E0,3.0818577E0,3.2556143E0,1.4538105E0,1.8018037E0],"tree_param":{"num_deleted":"0","num_feature":"10","num_nodes":"9","size_leaf_vector":"1"}},{"base_weights":[4.1720584E-2,-4.3509194E-1,9.693104E-2,-8.2850225E-2,2.6863208E-1,7.275074E-2,-4.314802E-1,-6.13053E-3,-5.7110425E-2],"categories":[],"categories_nodes":[],"categories_segments":[],"categories_sizes":[],"default_left":[0,0,0,0,0,0,0,0,0],"id":25,"left_children":[1,3,-1,-1,5,-1,7,-1,-1],"loss_changes":[1.07853365E1,4.6983337E0,0E0,0E0,2.4188874E0,0E0,1.315133E-1,0E0,0E0],"parents":[2147483647,0,0,1,1,4,4,6,6],"right_children":[2,4,-1,-1,6,-1,8,-1,-1],"split_conditions":[1E0,1E0,9.693104E-2,-8.2850225E-2,3.84E1,7.275074E-2,5.151E0,-6.13053E-3,-5.7110425E-2],"split_indices":[1,3,0,0,7,0,4,0,0],"split_type":[0,0,0,0,0,0,0,0,0],"sum_hessian":[2.2431866E1,1.5166642E1,7.265223E0,9.614458E0,5.5521836E0,3.3302832E0,2.2219007E0,1.00267E0,1.2192307E0],"tree_param":{"num_deleted":"0","num_feature":"10","num_nodes":"9","size_leaf_vector":"1"}},{"base_weights":[4.8388403E-2,-4.3146104E-1,9.577517E-2,-9.109262E-2,1.9504884E-1,-4.5837712E-1,6.982428E-1,4.8929243E-4,-6.737495E-2,8.506318E-2,1.6829217E-2],"categories":[],"categories_nodes":[],"categories_segments":[],"categories_sizes":[],"default_left":[0,0,0,0,0,0,0,0,0,0,0],"id":26,"left_children":[1,3,-1,-1,5,7,9,-1,-1,-1,-1],"loss_changes":[9.751342E0,4.5927157E0,0E0,0E0,2.6859162E0,3.758691E-1,2.171359E-1,0E0,0E0,0E0,0E0],"parents":[2147483647,0,0,1,1,4,4,5,5,6,6],"right_children":[2,4,-1,-1,6,8,10,-1,-1,-1,-1],"split_conditions":[1E0,1E0,9.577517E-2,-9.109262E-2,1E0,8E0,1.8E1,4.8929243E-4,-6.737495E-2,8.506318E-2,1.6829217E-2],"split_indices":[1,0,0,0,3,2,5,0,0,0,0],"split_type":[0,0,0,0,0,0,0,0,0,0,0],"sum_hessian":[2.0400135E1,1.3697712E1,6.7024226E0,7.502281E0,6.195431E0,2.734105E0,3.4613264E0,1.177837E0,1.556268E0,2.2183244E0,1.2430018E0],"tree_param":{"num_deleted":"0","num_feature":"10","num_nodes":"11","size_leaf_vector":"1"}},{"base_weights":[1.1501148E-2,-7.323616E-1,5.879479E-1,-8.5502684E-2,1.410935E-2,7.6308066E-1,-3.079614E-2,9.2081153E-1,8.1611104E-2,2.7589977E-2,9.802952E-2,1.4015446E-2,-1.7258391E-3],"categories":[],"categories_nodes":[],"categories_segments":[],"categories_sizes":[],"default_left":[0,0,0,0,0,0,0,0,0,0,0,0,0],"id":27,"left_children":[1,3,5,-1,-1,7,-1,9,11,-1,-1,-1,-1],"loss_changes":[9.252162E0,1.1307139E0,2.1406536E0,0E0,0E0,1.0477858E0,0E0,5.1245213E-2,2.013521E-2,0E0,0E0,0E0,0E0],"parents":[2147483647,0,0,1,1,2,2,5,5,7,7,8,8],"right_children":[2,4,6,-1,-1,8,-1,10,12,-1,-1,-1,-1],"split_conditions":[1E0,4.6E1,9E0,-8.5502684E-2,1.410935E-2,5.0473E0,-3.079614E-2,4.159535E0,1.8E1,2.7589977E-2,9.802952E-2,1.4015446E-2,-1.7258391E-3],"split_indices":[0,5,2,0,0,4,0,6,5,0,0,0,0],"split_type":[0,0,0,0,0,0,0,0,0,0,0,0,0],"sum_hessian":[1.9572824E1,8.4274E0,1.1145424E1,7.4081244E0,1.0192751E0,9.446984E0,1.6984395E0,7.3861856E0,2.060799E0,1.0998658E0,6.2863197E0,1.0320959E0,1.0287031E0],"tree_param":{"num_deleted":"0","num_feature":"10","num_nodes":"13","size_leaf_vector":"1"}},{"base_weights":[-2.1091278E-3,-6.121816E-1,5.869562E-1,-8.141996E-2,-1.3188235E-1,-4.0016312E-2,7.467811E-1,1.452993E-2,-4.30258E-2,9.227996E-2,3.0375874E-1,-2.9630914E-2,6.1260957E-2],"categories":[],"categories_nodes":[],"categories_segments":[],"categories_sizes":[],"default_left":[0,0,0,0,0,0,0,0,0,0,0,0,0],"id":28,"left_children":[1,3,5,-1,7,-1,9,-1,-1,-1,11,-1,-1],"loss_changes":[6.981878E0,8.184838E-1,1.8585095E0,0E0,3.9486155E-1,0E0,4.1038322E-1,0E0,0E0,0E0,9.245486E-1,0E0,0E0],"parents":[2147483647,0,0,1,1,2,2,4,4,6,6,10,10],"right_children":[2,4,6,-1,8,-1,10,-1,-1,-1,12,-1,-1],"split_conditions":[1E0,1E0,1E0,-8.141996E-2,1E1,-4.0016312E-2,3.19E1,1.452993E-2,-4.30258E-2,9.227996E-2,4.3326235E0,-2.9630914E-2,6.1260957E-2],"split_indices":[3,0,9,0,2,0,7,0,0,0,6,0,0],"split_type":[0,0,0,0,0,0,0,0,0,0,0,0,0],"sum_hessian":[1.74281E1,8.542116E0,8.885985E0,5.523636E0,3.01848E0,1.0287019E0,7.8572836E0,1.8307773E0,1.1877029E0,4.8481054E0,3.0091782E0,1.036318E0,1.9728603E0],"tree_param":{"num_deleted":"0","num_feature":"10","num_nodes":"13","size_leaf_vector":"1"}},{"base_weights":[6.2647103E-3,-4.8466676E-1,9.33545E-2,-8.823557E-2,1.3669711E-2,5.382488E-2,-4.468193E-1,-1.0892998E-2,-6.921515E-2],"categories":[],"categories_nodes":[],"categories_segments":[],"categories_sizes":[],"default_left":[0,0,0,0,0,0,0,0,0],"id":29,"left_children":[1,3,-1,-1,5,-1,7,-1,-1],"loss_changes":[8.907142E0,2.5491035E0,0E0,0E0,1.8508854E0,0E0,2.6418716E-1,0E0,0E0],"parents":[2147483647,0,0,1,1,4,4,6,6],"right_children":[2,4,-1,-1,6,-1,8,-1,-1],"split_conditions":[1E0,1E0,9.33545E-2,-8.823557E-2,1.8E1,5.382488E-2,5.0305E0,-1.0892998E-2,-6.921515E-2],"split_indices":[1,0,0,0,5,0,4,0,0],"split_type":[0,0,0,0,0,0,0,0,0],"sum_hessian":[1.7572289E1,1.18015175E1,5.770772E0,6.1349907E0,5.666527E0,2.5699883E0,3.0965383E0,1.9099823E0,1.1865561E0],"tree_param":{"num_deleted":"0","num_feature":"10","num_nodes":"9","size_leaf_vector":"1"}},{"base_weights":[-2.0495811E-2,-4.5542696E-1,9.048968E-2,-7.7931374E-2,1.3586932E-1,6.350797E-2,-3.0351114E-1,-5.271408E-3,-4.367366E-2],"categories":[],"categories_nodes":[],"categories_segments":[],"categories_sizes":[],"default_left":[0,0,0,0,0,0,0,0,0],"id":30,"left_children":[1,3,-1,-1,5,-1,7,-1,-1],"loss_changes":[7.630579E0,2.5698593E0,0E0,0E0,1.3782613E0,0E0,9.563574E-2,0E0,0E0],"parents":[2147483647,0,0,1,1,4,4,6,6],"right_children":[2,4,-1,-1,6,-1,8,-1,-1],"split_conditions":[1E0,1E0,9.048968E-2,-7.7931374E-2,5.0342E0,6.350797E-2,1.8E1,-5.271408E-3,-4.367366E-2],"split_indices":[1,3,0,0,4,0,5,0,0],"split_type":[0,0,0,0,0,0,0,0,0],"sum_hessian":[1.6934874E1,1.1865831E1,5.069042E0,7.4610257E0,4.404805E0,1.8535086E0,2.5512967E0,1.3692876E0,1.1820092E0],"tree_param":{"num_deleted":"0","num_feature":"10","num_nodes":"9","size_leaf_vector":"1"}},{"base_weights":[-1.339318E-3,3.038835E-1,-8.077341E-2,6.585868E-1,-5.362847E-1,8.972083E-2,7.513247E-2,-6.395815E-2,-1.0805255E-2,-3.830076E-2,6.748587E-2],"categories":[],"categories_nodes":[],"categories_segments":[],"categories_sizes":[],"default_left":[0,0,0,0,0,0,0,0,0,0,0],"id":31,"left_children":[1,3,-1,5,7,-1,9,-1,-1,-1,-1],"loss_changes":[4.2727723E0,4.107057E0,0E0,1.2282071E0,1.20681405E-1,0E0,1.3005255E0,0E0,0E0,0E0,0E0],"parents":[2147483647,0,0,1,1,3,3,4,4,6,6],"right_children":[2,4,-1,6,8,-1,10,-1,-1,-1,-1],"split_conditions":[7.1324E0,9E0,-8.077341E-2,5.0342E0,4.022675E0,8.972083E-2,5.1334E0,-6.395815E-2,-1.0805255E-2,-3.830076E-2,6.748587E-2],"split_indices":[4,2,0,4,6,0,4,0,0,0,0],"split_type":[0,0,0,0,0,0,0,0,0,0,0],"sum_hessian":[1.5362551E1,1.1596427E1,3.7661238E0,8.305939E0,3.2904878E0,5.5133386E0,2.7926004E0,2.253392E0,1.0370958E0,1.7880467E0,1.0045538E0],"tree_param":{"num_deleted":"0","num_feature":"10","num_nodes":"11","size_leaf_vector":"1"}},{"base_weights":[-8.3449386E-2,-7.2412795E-1,3.1431484E-1,-8.1578806E-2,-2.3085834E-2,5.350212E-1,-3.3489954E-2,7.7337734E-2,-3.0353231E-2],"categories":[],"categories_nodes":[],"categories_segments":[],"categories_sizes":[],"default_left":[0,0,0,0,0,0,0,0,0],"id":32,"left_children":[1,3,5,-1,-1,7,-1,-1,-1],"loss_changes":[4.286158E0,1.0116553E-1,1.6869754E0,0E0,0E0,1.8813524E0,0E0,0E0,0E0],"parents":[2147483647,0,0,1,1,2,2,5,5],"right_children":[2,4,6,-1,-1,8,-1,-1,-1],"split_conditions":[1E0,1E0,5.0473E0,-8.1578806E-2,-2.3085834E-2,9E0,-3.3489954E-2,7.7337734E-2,-3.0353231E-2],"split_indices":[0,3,4,0,0,2,0,0,0],"split_type":[0,0,0,0,0,0,0,0,0],"sum_hessian":[1.4925952E1,5.4029417E0,9.52301E0,4.004906E0,1.3980356E0,7.2382092E0,2.2848008E0,5.6966724E0,1.5415367E0],"tree_param":{"num_deleted":"0","num_feature":"10","num_nodes":"9","size_leaf_vector":"1"}},{"base_weights":[-5.191853E-2,-4.5256722E-1,8.6303405E-2,-8.1946415E-1,1.0620885E-1,-2.0477196E-2,-8.887635E-2,6.83262E-2,-3.774509E-1,-6.2310703E-2,9.002964E-3],"categories":[],"categories_nodes":[],"categories_segments":[],"categories_sizes":[],"default_left":[0,0,0,0,0,0,0,0,0,0,0],"id":33,"left_children":[1,3,-1,5,7,-1,-1,-1,9,-1,-1],"loss_changes":[5.9959326E0,2.4017253E0,0E0,1.13214016E-1,1.7539463E0,0E0,0E0,0E0,4.6495998E-1,0E0,0E0],"parents":[2147483647,0,0,1,1,3,3,4,4,8,8],"right_children":[2,4,-1,6,8,-1,-1,-1,10,-1,-1],"split_conditions":[1E0,1E0,8.6303405E-2,1.4E1,3.06E1,-2.0477196E-2,-8.887635E-2,6.83262E-2,4.82E1,-6.2310703E-2,9.002964E-3],"split_indices":[1,3,0,5,7,0,0,0,7,0,0],"split_type":[0,0,0,0,0,0,0,0,0,0,0],"sum_hessian":[1.4291165E1,1.0290446E1,4.0007195E0,5.9301357E0,4.36031E0,1.0015119E0,4.928624E0,1.8000199E0,2.5602903E0,1.4601121E0,1.1001782E0],"tree_param":{"num_deleted":"0","num_feature":"10","num_nodes":"11","size_leaf_vector":"1"}},{"base_weights":[-4.0240087E-2,-4.4877943E-1,8.406221E-2,-7.763125E-2,5.2975513E-2,6.1575003E-2,-4.3561935E-1,-6.0613144E-2,-5.9633306E-3],"categories":[],"categories_nodes":[],"categories_segments":[],"categories_sizes":[],"default_left":[0,0,0,0,0,0,0,0,0],"id":34,"left_children":[1,3,-1,-1,5,-1,7,-1,-1],"loss_changes":[5.3226833E0,1.6911349E0,0E0,0E0,1.6160034E0,0E0,1.6960645E-1,0E0,0E0],"parents":[2147483647,0,0,1,1,4,4,6,6],"right_children":[2,4,-1,-1,6,-1,8,-1,-1],"split_conditions":[1E0,1E0,8.406221E-2,-7.763125E-2,3.06E1,6.1575003E-2,4.55E1,-6.0613144E-2,-5.9633306E-3],"split_indices":[1,3,0,0,7,0,7,0,0],"split_type":[0,0,0,0,0,0,0,0,0],"sum_hessian":[1.2742386E1,9.040138E0,3.702247E0,5.138597E0,3.9015415E0,1.6921912E0,2.2093503E0,1.0988866E0,1.1104637E0],"tree_param":{"num_deleted":"0","num_feature":"10","num_nodes":"9","size_leaf_vector":"1"}},{"base_weights":[-6.4617256E-3,-3.8315067E-1,8.330627E-2,-7.692435E-2,1.6304375E-1,4.5476186E-1,-2.6723584E-2,5.3937502E-2,1.370233E-2],"categories":[],"categories_nodes":[],"categories_segments":[],"categories_sizes":[],"default_left":[0,0,0,0,0,0,0,0,0],"id":35,"left_children":[1,3,-1,-1,5,7,-1,-1,-1],"loss_changes":[4.6993575E0,2.2860837E0,0E0,0E0,7.577011E-1,1.7249167E-2,0E0,0E0,0E0],"parents":[2147483647,0,0,1,1,4,4,5,5],"right_children":[2,4,-1,-1,6,8,-1,-1,-1],"split_conditions":[1E0,1E0,8.330627E-2,-7.692435E-2,1.8E1,4.331943E0,-2.6723584E-2,5.3937502E-2,1.370233E-2],"split_indices":[1,3,0,0,5,6,0,0,0],"split_type":[0,0,0,0,0,0,0,0,0],"sum_hessian":[1.2850795E1,9.245852E0,3.604942E0,5.177572E0,4.068281E0,2.3906114E0,1.6776695E0,1.337022E0,1.0535896E0],"tree_param":{"num_deleted":"0","num_feature":"10","num_nodes":"9","size_leaf_vector":"1"}},{"base_weights":[2.0137805E-2,-6.2016886E-1,4.653164E-1,-7.71107E-2,-1.2249614E-2,-2.1465167E-2,6.188504E-1,7.098984E-1,1.94013E-2,1.8726213E-2,7.935561E-2],"categories":[],"categories_nodes":[],"categories_segments":[],"categories_sizes":[],"default_left":[0,0,0,0,0,0,0,0,0,0,0],"id":36,"left_children":[1,3,5,-1,-1,-1,7,9,-1,-1,-1],"loss_changes":[3.8796985E0,3.2585907E-1,9.6831083E-1,0E0,0E0,0E0,1.2476301E-1,7.929587E-2,0E0,0E0,0E0],"parents":[2147483647,0,0,1,1,2,2,6,6,7,7],"right_children":[2,4,6,-1,-1,-1,8,10,-1,-1,-1],"split_conditions":[1E0,5.0319085E0,4.022675E0,-7.71107E-2,-1.2249614E-2,-2.1465167E-2,5.0473E0,9.5E0,1.94013E-2,1.8726213E-2,7.935561E-2],"split_indices":[0,6,6,0,0,0,4,7,0,0,0],"split_type":[0,0,0,0,0,0,0,0,0,0,0],"sum_hessian":[1.1598189E1,4.5954337E0,7.0027556E0,3.1044617E0,1.4909718E0,1.2166058E0,5.78615E0,4.212393E0,1.5737572E0,1.0280805E0,3.1843123E0],"tree_param":{"num_deleted":"0","num_feature":"10","num_nodes":"11","size_leaf_vector":"1"}},{"base_weights":[-5.8633108E-2,-5.963838E-1,3.2387355E-1,-7.501892E-2,-1.2736621E-2,-1.35594E-1,5.716988E-1,-4.4184834E-2,1.7866561E-2,7.820864E-2,-6.01269E-3],"categories":[],"categories_nodes":[],"categories_segments":[],"categories_sizes":[],"default_left":[0,0,0,0,0,0,0,0,0,0,0],"id":37,"left_children":[1,3,5,-1,-1,7,9,-1,-1,-1,-1],"loss_changes":[2.650181E0,2.8800213E-1,9.4612E-1,0E0,0E0,4.13975E-1,7.312163E-1,0E0,0E0,0E0,0E0],"parents":[2147483647,0,0,1,1,2,2,5,5,6,6],"right_children":[2,4,6,-1,-1,8,10,-1,-1,-1,-1],"split_conditions":[1E0,5.054573E0,1E0,-7.501892E-2,-1.2736621E-2,4.159535E0,3.92E1,-4.4184834E-2,1.7866561E-2,7.820864E-2,-6.01269E-3],"split_indices":[0,6,3,0,0,6,7,0,0,0,0],"split_type":[0,0,0,0,0,0,0,0,0,0,0],"sum_hessian":[1.0945111E1,4.3169456E0,6.6281657E0,2.799434E0,1.5175114E0,2.4810913E0,4.1470747E0,1.050932E0,1.4301592E0,2.9327102E0,1.2143643E0],"tree_param":{"num_deleted":"0","num_feature":"10","num_nodes":"11","size_leaf_vector":"1"}},{"base_weights":[-1.062504E-3,-3.9697188E-1,8.242424E-2,-7.900239E-2,-1.9364024E-2,-5.8978725E-2,2.274312E-1,5.7348605E-2,-9.000969E-3],"categories":[],"categories_nodes":[],"categories_segments":[],"categories_sizes":[],"default_left":[0,0,0,0,0,0,0,0,0],"id":38,"left_children":[1,3,-1,-1,5,-1,7,-1,-1],"loss_changes":[4.4466214E0,1.3494358E0,0E0,0E0,9.3865496E-1,0E0,5.690964E-1,0E0,0E0],"parents":[2147483647,0,0,1,1,4,4,6,6],"right_children":[2,4,-1,-1,6,-1,8,-1,-1],"split_conditions":[1E0,1E0,8.242424E-2,-7.900239E-2,4.022675E0,-5.8978725E-2,4.290281E0,5.7348605E-2,-9.000969E-3],"split_indices":[1,0,0,0,6,0,6,0,0],"split_type":[0,0,0,0,0,0,0,0,0],"sum_hessian":[1.1607411E1,8.19511E0,3.4123008E0,3.4802933E0,4.714817E0,1.0041407E0,3.7106764E0,1.3894216E0,2.321255E0],"tree_param":{"num_deleted":"0","num_feature":"10","num_nodes":"9","size_leaf_vector":"1"}},{"base_weights":[9.361333E-2,-6.1326516E-1,4.9253345E-1,-1.8994091E-2,-7.0290655E-2,6.176742E-1,-1.2540703E-2,7.796644E-2,8.017945E-3],"categories":[],"categories_nodes":[],"categories_segments":[],"categories_sizes":[],"default_left":[0,0,0,0,0,0,0,0,0],"id":39,"left_children":[1,3,5,-1,-1,7,-1,-1,-1],"loss_changes":[3.3873792E0,3.3174157E-2,6.6120625E-1,0E0,0E0,4.9875855E-1,0E0,0E0,0E0],"parents":[2147483647,0,0,1,1,2,2,5,5],"right_children":[2,4,6,-1,-1,8,-1,-1,-1],"split_conditions":[1E0,6.2569E0,9E0,-1.8994091E-2,-7.0290655E-2,5.0473E0,-1.2540703E-2,7.796644E-2,8.017945E-3],"split_indices":[0,4,2,0,0,4,0,0,0],"split_type":[0,0,0,0,0,0,0,0,0],"sum_hessian":[9.941335E0,3.3925288E0,6.548806E0,1.1378801E0,2.2546487E0,5.446294E0,1.1025122E0,3.8388028E0,1.6074911E0],"tree_param":{"num_deleted":"0","num_feature":"10","num_nodes":"9","size_leaf_vector":"1"}},{"base_weights":[-1.290059E-1,-5.4110044E-1,7.8077994E-2,-1.41373165E-2,-7.4533485E-2,-5.6140482E-2,5.7467025E-2],"categories":[],"categories_nodes":[],"categories_segments":[],"categories_sizes":[],"default_left":[0,0,0,0,0,0,0],"id":40,"left_children":[1,3,-1,5,-1,-1,-1],"loss_changes":[4.4640584E0,8.5152483E-1,0E0,1.3720237E0,0E0,0E0,0E0],"parents":[2147483647,0,0,1,1,3,3],"right_children":[2,4,-1,6,-1,-1,-1],"split_conditions":[1E0,2.53E1,7.8077994E-2,1E0,-7.4533485E-2,-5.6140482E-2,5.7467025E-2],"split_indices":[1,7,0,3,0,0,0],"split_type":[0,0,0,0,0,0,0],"sum_hessian":[9.779904E0,7.0099416E0,2.769963E0,2.2566307E0,4.753311E0,1.1936922E0,1.0629385E0],"tree_param":{"num_deleted":"0","num_feature":"10","num_nodes":"7","size_leaf_vector":"1"}},{"base_weights":[5.1578075E-2,-2.738396E-1,7.640981E-2,-7.405181E-2,2.223773E-2,3.7266278E-1,-6.0850978E-2,-9.45422E-3,6.055624E-2],"categories":[],"categories_nodes":[],"categories_segments":[],"categories_sizes":[],"default_left":[0,0,0,0,0,0,0,0,0],"id":41,"left_children":[1,3,-1,-1,5,7,-1,-1,-1],"loss_changes":[2.7062757E0,1.1396786E0,0E0,0E0,1.540668E0,5.4054755E-1,0E0,0E0,0E0],"parents":[2147483647,0,0,1,1,4,4,5,5],"right_children":[2,4,-1,-1,6,8,-1,-1,-1],"split_conditions":[1E0,4.022675E0,7.640981E-2,-7.405181E-2,5.151E0,1E0,-6.0850978E-2,-9.45422E-3,6.055624E-2],"split_indices":[1,6,0,0,4,3,0,0,0],"split_type":[0,0,0,0,0,0,0,0,0],"sum_hessian":[9.769276E0,7.129026E0,2.6402495E0,2.1845815E0,4.9444447E0,3.441577E0,1.5028677E0,1.3425127E0,2.099064E0],"tree_param":{"num_deleted":"0","num_feature":"10","num_nodes":"9","size_leaf_vector":"1"}},{"base_weights":[-2.3667702E-2,-4.01479E-1,7.5884394E-2,-6.9929406E-2,7.682E-2,5.084476E-2,-3.3463936E-2],"categories":[],"categories_nodes":[],"categories_segments":[],"categories_sizes":[],"default_left":[0,0,0,0,0,0,0],"id":42,"left_children":[1,3,-1,-1,5,-1,-1],"loss_changes":[3.2438943E0,1.1019282E0,0E0,0E0,8.316511E-1,0E0,0E0],"parents":[2147483647,0,0,1,1,4,4],"right_children":[2,4,-1,-1,6,-1,-1],"split_conditions":[1E0,1E0,7.5884394E-2,-6.9929406E-2,5.0342E0,5.084476E-2,-3.3463936E-2],"split_indices":[1,3,0,0,4,0,0],"split_type":[0,0,0,0,0,0,0],"sum_hessian":[8.941877E0,6.358709E0,2.5831685E0,3.6339626E0,2.7247462E0,1.2147431E0,1.5100032E0],"tree_param":{"num_deleted":"0","num_feature":"10","num_nodes":"7","size_leaf_vector":"1"}},{"base_weights":[-7.183615E-2,-4.1594896E-1,7.2823025E-2,2.2833696E-2,-6.92448E-2],"categories":[],"categories_nodes":[],"categories_segments":[],"categories_sizes":[],"default_left":[0,0,0,0,0],"id":43,"left_children":[1,3,-1,-1,-1],"loss_changes":[2.9747207E0,1.4803756E0,0E0,0E0,0E0],"parents":[2147483647,0,0,1,1],"right_children":[2,4,-1,-1,-1],"split_conditions":[1E0,1.8E1,7.2823025E-2,2.2833696E-2,-6.92448E-2],"split_indices":[1,7,0,0,0],"split_type":[0,0,0,0,0],"sum_hessian":[8.7046385E0,6.422426E0,2.2822125E0,1.9808719E0,4.441554E0],"tree_param":{"num_deleted":"0","num_feature":"10","num_nodes":"5","size_leaf_vector":"1"}},{"base_weights":[1.6644597E-2,-2.6429364E-1,6.8679005E-2,-7.0499025E-2,9.2271335E-2,4.642914E-2,-2.9757211E-2],"categories":[],"categories_nodes":[],"categories_segments":[],"categories_sizes":[],"default_left":[0,0,0,0,0,0,0],"id":44,"left_children":[1,3,-1,-1,5,-1,-1],"loss_changes":[1.8861809E0,1.1810298E0,0E0,0E0,8.3574677E-1,0E0,0E0],"parents":[2147483647,0,0,1,1,4,4],"right_children":[2,4,-1,-1,6,-1,-1],"split_conditions":[1E0,1E0,6.8679005E-2,-7.0499025E-2,1.8E1,4.642914E-2,-2.9757211E-2],"split_indices":[1,0,0,0,5,0,0],"split_type":[0,0,0,0,0,0,0],"sum_hessian":[8.054396E0,6.1019535E0,1.9524423E0,2.2919927E0,3.8099608E0,1.8518282E0,1.9581326E0],"tree_param":{"num_deleted":"0","num_feature":"10","num_nodes":"7","size_leaf_vector":"1"}},{"base_weights":[6.298155E-3,-5.5529635E-2,3.0808988E-1,-3.1855077E-2,4.8137018E-1,5.835448E-1,1.1291678E-2,1.548695E-2,6.712993E-2],"categories":[],"categories_nodes":[],"categories_segments":[],"categories_sizes":[],"default_left":[0,0,0,0,0,0,0,0,0],"id":45,"left_children":[1,-1,3,-1,5,7,-1,-1,-1],"loss_changes":[1.7546164E0,0E0,8.8308567E-1,0E0,1.4729846E-1,5.3790808E-2,0E0,0E0,0E0],"parents":[2147483647,0,0,2,2,4,4,5,5],"right_children":[2,-1,4,-1,6,8,-1,-1,-1],"split_conditions":[1E0,-5.5529635E-2,4.022675E0,-3.1855077E-2,5.046E0,4.9579E0,1.1291678E-2,1.548695E-2,6.712993E-2],"split_indices":[0,0,6,0,4,4,0,0,0],"split_type":[0,0,0,0,0,0,0,0,0],"sum_hessian":[8.343241E0,2.6227155E0,5.7205257E0,1.0575843E0,4.662941E0,3.1935735E0,1.4693677E0,1.0124791E0,2.1810944E0],"tree_param":{"num_deleted":"0","num_feature":"10","num_nodes":"9","size_leaf_vector":"1"}},{"base_weights":[8.9654565E-2,-5.083912E-1,3.979016E-1,-6.1037865E-2,-1.2765816E-2,5.38E-1,9.219688E-4,-4.544801E-3,7.0778824E-2],"categories":[],"categories_nodes":[],"categories_segments":[],"categories_sizes":[],"default_left":[0,0,0,0,0,0,0,0,0],"id":46,"left_children":[1,3,5,-1,-1,7,-1,-1,-1],"loss_changes":[1.8805481E0,5.936098E-2,3.527149E-1,0E0,0E0,5.0872886E-1,0E0,0E0,0E0],"parents":[2147483647,0,0,1,1,2,2,5,5],"right_children":[2,4,6,-1,-1,8,-1,-1,-1],"split_conditions":[1E0,4.857394E0,5.0473E0,-6.1037865E-2,-1.2765816E-2,4.220878E0,9.219688E-4,-4.544801E-3,7.0778824E-2],"split_indices":[0,6,4,0,0,6,0,0,0],"split_type":[0,0,0,0,0,0,0,0,0],"sum_hessian":[8.103859E0,2.5354347E0,5.568424E0,1.5240254E0,1.0114093E0,3.8107085E0,1.7577157E0,1.0240529E0,2.7866557E0],"tree_param":{"num_deleted":"0","num_feature":"10","num_nodes":"9","size_leaf_vector":"1"}},{"base_weights":[-6.303797E-2,-3.6010736E-1,6.7822635E-2,-6.47693E-2,6.5851405E-2,3.2453235E-2,-1.6684966E-2],"categories":[],"categories_nodes":[],"categories_segments":[],"categories_sizes":[],"default_left":[0,0,0,0,0,0,0],"id":47,"left_children":[1,3,-1,-1,5,-1,-1],"loss_changes":[2.1731696E0,8.8871723E-1,0E0,0E0,2.7635127E-1,0E0,0E0],"parents":[2147483647,0,0,1,1,4,4],"right_children":[2,4,-1,-1,6,-1,-1],"split_conditions":[1E0,1E0,6.7822635E-2,-6.47693E-2,5.0381E0,3.2453235E-2,-1.6684966E-2],"split_indices":[1,3,0,0,4,0,0],"split_type":[0,0,0,0,0,0,0],"sum_hessian":[7.7596474E0,5.9066815E0,1.8529656E0,3.2153132E0,2.6913683E0,1.0876528E0,1.6037157E0],"tree_param":{"num_deleted":"0","num_feature":"10","num_nodes":"7","size_leaf_vector":"1"}},{"base_weights":[-5.818853E-2,-3.635047E-1,6.610991E-2,-6.195381E-2,1.741449E-2,3.0736187E-2,-2.6627898E-2],"categories":[],"categories_nodes":[],"categories_segments":[],"categories_sizes":[],"default_left":[0,0,0,0,0,0,0],"id":48,"left_children":[1,3,-1,-1,5,-1,-1],"loss_changes":[2.002767E0,6.231833E-1,0E0,0E0,3.6946678E-1,0E0,0E0],"parents":[2147483647,0,0,1,1,4,4],"right_children":[2,4,-1,-1,6,-1,-1],"split_conditions":[1E0,1E0,6.610991E-2,-6.195381E-2,5.0443E0,3.0736187E-2,-2.6627898E-2],"split_indices":[1,3,0,0,4,0,0],"split_type":[0,0,0,0,0,0,0],"sum_hessian":[7.025378E0,5.279163E0,1.7462152E0,2.7824924E0,2.4966705E0,1.1934657E0,1.3032048E0],"tree_param":{"num_deleted":"0","num_feature":"10","num_nodes":"7","size_leaf_vector":"1"}},{"base_weights":[6.639028E-2,-5.4122597E-2,3.1429756E-1,5.3827435E-1,-4.3424677E-2,7.954813E-2,1.8711469E-1,-5.765571E-3,3.824606E-2],"categories":[],"categories_nodes":[],"categories_segments":[],"categories_sizes":[],"default_left":[0,0,0,0,0,0,0,0,0],"id":49,"left_children":[1,-1,3,5,-1,-1,7,-1,-1],"loss_changes":[1.4041306E0,0E0,1.3152981E0,3.3995378E-1,0E0,0E0,1.9397408E-1,0E0,0E0],"parents":[2147483647,0,0,2,2,3,3,6,6],"right_children":[2,-1,4,6,-1,-1,8,-1,-1],"split_conditions":[4.022675E0,-5.4122597E-2,6.2569E0,1.9E1,-4.3424677E-2,7.954813E-2,4.28E1,-5.765571E-3,3.824606E-2],"split_indices":[6,0,4,7,0,0,7,0,0],"split_type":[0,0,0,0,0,0,0,0,0],"sum_hessian":[7.1922865E0,1.7412746E0,5.4510117E0,4.411826E0,1.0391858E0,1.81623E0,2.5955958E0,1.4649066E0,1.1306894E0],"tree_param":{"num_deleted":"0","num_feature":"10","num_nodes":"9","size_leaf_vector":"1"}}]},"name":"gbtree"},"learner_model_param":{"base_score":"[3.2656828E-1]","boost_from_average":"1","num_class":"0","num_feature":"10","num_target":"1"},"objective":{"name":"binary:logistic","reg_loss_param":{"scale_pos_weight":"1"}}},"version":[3,1,1]}